(1,1,.,.) = 
  8.7806e-13  3.2632e-13  1.0845e-12
  3.2378e-12  1.4396e-12 -2.3380e-13
  1.4701e-12  1.4406e-12  1.7794e-12

(2,1,.,.) = 
 -9.4309e-02 -2.0627e-01 -2.2922e-01
 -2.1990e-01 -2.5408e-01 -2.8000e-01
 -1.5576e-01 -2.1540e-01 -2.4821e-01

(3,1,.,.) = 
 -9.1395e-02  2.3038e-02 -4.1614e-02
 -8.7542e-03  3.4400e-01 -3.5246e-01
  9.7339e-02  3.7879e-01 -3.6974e-01

(4,1,.,.) = 
 -5.9938e-02  9.2651e-02 -5.7267e-02
 -1.4195e-02  2.9583e-01 -3.1351e-01
  1.4843e-02  3.1264e-01 -3.1144e-01

(5,1,.,.) = 
  1.0741e-02  2.5705e-02 -1.9224e-02
 -5.9532e-02 -1.3945e-01 -8.9031e-02
 -4.2281e-02 -1.6569e-01 -1.1853e-01

(6,1,.,.) = 
 -1.8549e-02 -8.4876e-04  3.5679e-03
  5.0021e-02  1.6672e-01  6.5549e-02
  9.5748e-02  2.3442e-01  1.0206e-01

(7,1,.,.) = 
 -6.6961e-03  9.2725e-02  7.4246e-02
  2.8935e-02  1.1000e-01  8.9832e-02
 -3.0927e-02  6.6829e-02  6.7839e-02

(8,1,.,.) = 
  4.9222e-02 -1.8429e-02 -8.0828e-02
 -1.9221e-01 -5.9889e-01 -4.3276e-01
 -1.9592e-01 -5.8462e-01 -4.5092e-01

(9,1,.,.) = 
 -1.2244e-10 -1.7132e-10 -7.1544e-11
 -2.3672e-10 -3.1042e-10 -1.9690e-10
 -2.4402e-10 -2.9637e-10 -1.8709e-10

(10,1,.,.) = 
 -3.3245e-12 -1.7422e-13 -6.5070e-13
 -2.1918e-12  1.8232e-12  1.6408e-12
 -4.5884e-13  5.1355e-12  2.5327e-13

(11,1,.,.) = 
  1.3128e-02 -3.9764e-03  5.9300e-02
 -2.5229e-01 -2.1622e-01  9.8815e-02
  2.4611e-01 -9.9635e-04  5.9264e-02

(12,1,.,.) = 
 -1.7413e-01  6.6852e-02  1.3210e-01
 -3.2311e-01  4.7126e-02  2.4531e-01
 -2.4753e-01  8.8961e-02  1.7915e-01

(13,1,.,.) = 
 -7.5042e-02 -1.3176e-01 -4.5801e-02
  9.9340e-02  7.0809e-01  4.0673e-01
  6.8135e-02  8.0330e-01  5.6060e-01

(14,1,.,.) = 
  2.3457e-12  5.1029e-13 -3.5143e-12
  1.0364e-12  3.3106e-12 -2.8338e-12
  9.3909e-13  2.1500e-12 -2.2391e-12

(15,1,.,.) = 
  4.1773e-11 -3.4877e-10  3.8304e-11
  5.1434e-11 -6.1461e-11  7.4438e-11
  1.0433e-10  2.2905e-10  3.4028e-11

(16,1,.,.) = 
 -1.1512e-01  3.4780e-01 -1.6252e-01
 -1.8150e-01  3.8945e-01 -1.9793e-01
 -9.3504e-02  1.6425e-01 -1.0780e-01

(17,1,.,.) = 
 -2.1315e-12 -2.4676e-12  9.5449e-13
 -2.7765e-13 -6.1242e-13 -1.4831e-12
 -3.7247e-12 -2.1092e-12 -2.2097e-12

(18,1,.,.) = 
  1.6651e-01  3.6931e-01  2.9331e-01
  3.7210e-01  7.0993e-01  6.1205e-01
  2.5883e-01  5.5125e-01  4.7656e-01

(19,1,.,.) = 
  2.5289e-01  6.4702e-02  2.1100e-02
  1.6392e-01 -3.3564e-01 -3.3816e-02
  3.9904e-02 -1.0560e-01 -4.7520e-02

(20,1,.,.) = 
  3.2370e-02 -4.4910e-02 -2.9138e-01
  4.6347e-02 -4.4546e-02 -5.2443e-02
  3.3385e-02  2.0254e-02  2.0910e-02

(21,1,.,.) = 
 -9.1636e-02 -3.5058e-01 -3.3105e-01
  4.4065e-02  3.1840e-01  3.6130e-01
  2.8281e-02  5.1852e-02  2.0678e-04

(22,1,.,.) = 
  7.7130e-12  6.3105e-12  1.0585e-11
 -7.8486e-12 -1.1801e-11 -1.4239e-13
 -4.3768e-12  5.6540e-12 -8.0385e-13

(23,1,.,.) = 
 -2.2981e-12 -3.2205e-12 -1.4155e-12
 -2.1330e-12 -4.6416e-13 -4.4743e-12
 -1.9826e-12 -3.0369e-12 -1.4012e-12

(24,1,.,.) = 
 -1.0686e-02  6.5042e-02  5.0552e-02
 -1.4184e-01 -4.0817e-01 -3.6932e-01
  1.0069e-01  3.7694e-01  3.3282e-01

(25,1,.,.) = 
 -7.8773e-14  7.7095e-13 -3.6073e-13
  4.9249e-14 -1.6497e-12 -2.3299e-13
 -5.0251e-12 -1.9733e-12 -1.4864e-12

(26,1,.,.) = 
  6.8990e-03  2.6856e-01  5.3476e-02
  6.7287e-02  2.3207e-01  3.3244e-03
 -1.3281e-01 -4.1467e-01 -7.7985e-02

(27,1,.,.) = 
  3.2484e-12  2.4551e-12  2.6222e-12
  2.9344e-12  6.7684e-13  3.1971e-12
  2.3640e-12  3.4061e-13  4.2734e-12

(28,1,.,.) = 
  1.2776e-01  1.7090e-01  1.3434e-01
  2.0279e-01  2.3020e-01  1.7790e-01
  1.3842e-01  1.4799e-01  1.3135e-01

(29,1,.,.) = 
 -9.6507e-13  9.3592e-13 -2.1328e-12
  1.9187e-12  9.9489e-13 -2.5141e-13
  4.6699e-14 -1.3306e-12 -1.2557e-12

(30,1,.,.) = 
  7.6189e-03 -2.0377e-02  2.3305e-02
  2.3177e-01 -2.8850e-01  5.8833e-02
  3.2788e-01 -2.9093e-01 -3.1795e-03

(31,1,.,.) = 
 -5.8239e-02  8.2055e-03  1.8054e-01
 -7.7971e-02  1.0046e-01  3.3818e-01
 -1.0199e-01  5.1990e-02  1.7231e-01

(32,1,.,.) = 
 -8.9566e-02  4.6023e-02  1.2694e-01
  3.1523e-02 -2.2265e-03 -6.1002e-02
  1.0586e-01 -6.2634e-02 -1.9674e-01

(1,2,.,.) = 
 -4.2432e-13  1.9772e-12  5.2097e-13
  3.7064e-12 -9.4348e-13  1.8831e-12
 -3.4687e-13  1.1104e-12  3.0071e-12

(2,2,.,.) = 
  2.2400e-01  4.1895e-01  3.7852e-01
  4.7478e-01  7.4131e-01  6.5616e-01
  3.7170e-01  5.8185e-01  5.0989e-01

(3,2,.,.) = 
 -1.8219e-01  8.1472e-02 -1.0521e-01
  2.9220e-02  6.4096e-01 -6.5587e-01
  1.9109e-01  6.6555e-01 -6.7320e-01

(4,2,.,.) = 
 -7.9813e-02  1.1178e-01 -4.1727e-02
  3.3520e-02  3.1173e-01 -3.2808e-01
  8.2743e-02  3.4442e-01 -3.6202e-01

(5,2,.,.) = 
  2.5471e-02  4.9859e-03 -2.6901e-02
 -6.9760e-02 -2.4729e-01 -1.5627e-01
 -7.7827e-02 -2.7092e-01 -2.5438e-01

(6,2,.,.) = 
 -2.1934e-02  2.1048e-02 -3.0229e-04
  7.5332e-02  2.9395e-01  1.3867e-01
  1.4973e-01  3.5844e-01  2.5759e-01

(7,2,.,.) = 
  9.5755e-03 -2.8601e-02 -1.9839e-02
 -1.0366e-04 -1.2205e-01 -1.1017e-01
  3.2885e-02 -6.6007e-02 -6.5111e-02

(8,2,.,.) = 
 -5.2891e-02  9.1064e-02  1.5273e-01
  1.3169e-01  1.6024e-01  1.0208e-01
  1.8873e-01  1.2566e-01  5.5747e-02

(9,2,.,.) = 
 -2.3189e-11 -5.8851e-11  2.2628e-11
 -9.8779e-11 -1.5043e-10 -5.3501e-11
 -1.3861e-10 -1.5529e-10 -5.5376e-11

(10,2,.,.) = 
 -5.5220e-12 -5.4851e-12 -5.6856e-12
 -6.9028e-12 -2.5131e-12 -6.5288e-12
 -5.5993e-12 -2.0364e-12 -3.1994e-12

(11,2,.,.) = 
 -8.2216e-03  2.3730e-02  1.4872e-01
 -4.5549e-01 -3.4326e-01  1.6625e-01
  3.9138e-01  3.8545e-02  1.7823e-02

(12,2,.,.) = 
 -2.9452e-01  6.4276e-02  2.3285e-01
 -5.9494e-01  3.2931e-02  5.4351e-01
 -3.1524e-01  8.9380e-02  2.1132e-01

(13,2,.,.) = 
  1.9725e-01 -2.9333e-02 -1.3048e-01
 -1.5491e-01 -2.8436e-01 -1.0045e-01
 -2.0170e-01 -2.0768e-01 -5.2889e-02

(14,2,.,.) = 
  1.9138e-11  2.3503e-11  2.3441e-11
  2.2906e-11  2.2174e-11  2.1773e-11
  2.0790e-11  2.0626e-11  2.2149e-11

(15,2,.,.) = 
  4.3414e-11 -3.6860e-10  2.9004e-11
  2.4960e-11 -8.2348e-11  7.2940e-11
  5.6099e-11  2.3166e-10  3.5092e-11

(16,2,.,.) = 
 -1.8282e-01  6.8250e-01 -3.9750e-01
 -3.3932e-01  6.5800e-01 -3.4271e-01
 -9.5874e-02  1.1700e-01 -1.0320e-01

(17,2,.,.) = 
  3.1022e-12 -9.0022e-15 -1.1484e-12
  5.1006e-13  2.1567e-12  3.8449e-12
  3.4187e-12  2.5163e-12  4.9040e-12

(18,2,.,.) = 
 -8.1381e-02 -2.2509e-01 -1.9463e-01
 -1.9370e-01 -3.3554e-01 -2.9919e-01
 -1.3315e-01 -2.7706e-01 -2.3259e-01

(19,2,.,.) = 
  5.4901e-01  7.7630e-02 -1.1725e-03
  2.7756e-01 -6.1555e-01 -9.1943e-02
  1.7292e-02 -1.6250e-01 -4.9709e-02

(20,2,.,.) = 
 -3.0052e-02 -4.8019e-02 -2.5911e-01
  4.4774e-03 -5.3087e-02 -3.9352e-02
 -1.5865e-03  7.2407e-03  1.1325e-02

(21,2,.,.) = 
 -1.7188e-01 -6.7774e-01 -6.5892e-01
  1.3289e-01  5.9094e-01  6.9804e-01
  1.7806e-02  6.3756e-02  2.4178e-03

(22,2,.,.) = 
  9.4892e-12  1.7195e-12  9.8185e-12
 -6.1331e-12 -1.0308e-11 -3.8626e-12
  4.2753e-12  1.1356e-11  2.4150e-12

(23,2,.,.) = 
 -1.6465e-12 -4.2368e-12 -1.1100e-12
 -1.7310e-12 -1.3073e-12 -1.2259e-12
 -3.2019e-12 -9.4359e-13 -2.7725e-12

(24,2,.,.) = 
  2.2576e-02  5.7803e-02  4.6555e-02
 -2.4880e-01 -7.1758e-01 -6.5418e-01
  2.0339e-01  6.2813e-01  6.4100e-01

(25,2,.,.) = 
 -2.0626e-12  2.2512e-12  1.0958e-12
  1.5453e-12  1.2438e-12 -6.4296e-13
 -1.5395e-12 -4.2528e-15 -2.2888e-13

(26,2,.,.) = 
  6.6120e-02  4.8452e-01  8.3299e-02
  5.8451e-02  3.9054e-01  1.4285e-03
 -2.1069e-01 -7.5299e-01 -1.5567e-01

(27,2,.,.) = 
 -2.1631e-13  8.6551e-13  1.4927e-12
  1.9958e-12 -2.4708e-12 -6.5677e-13
 -8.2651e-13 -3.5546e-13  1.4840e-12

(28,2,.,.) = 
 -1.8284e-01 -3.8441e-01 -3.7379e-01
 -4.4993e-01 -6.7454e-01 -6.4315e-01
 -3.7884e-01 -6.0972e-01 -5.6395e-01

(29,2,.,.) = 
  2.1812e-13  4.2389e-12 -8.6979e-13
  1.3095e-12  5.2971e-12  9.4233e-13
  3.6080e-12  2.9197e-12  2.7999e-12

(30,2,.,.) = 
  4.7182e-02 -8.1931e-02  4.3099e-02
  4.3212e-01 -6.1457e-01  9.1344e-02
  5.7128e-01 -5.7218e-01  1.6607e-03

(31,2,.,.) = 
 -1.1002e-01  2.5244e-02  2.0562e-01
 -9.1961e-02  1.9335e-01  4.2663e-01
 -1.7258e-01  4.9025e-02  2.0957e-01

(32,2,.,.) = 
 -1.2561e-02  8.1091e-02  1.4326e-01
  4.6969e-02 -5.6475e-02 -1.4408e-01
  6.5215e-02 -1.7106e-01 -3.7471e-01

(1,3,.,.) = 
  2.2557e-12  3.4205e-12  4.8088e-12
  4.8432e-12  1.1483e-12  3.3143e-12
  1.8442e-12 -4.4494e-13  3.8697e-13

(2,3,.,.) = 
 -7.4878e-02 -1.5183e-01 -1.3569e-01
 -2.5425e-01 -4.3485e-01 -3.9514e-01
 -2.0829e-01 -3.8110e-01 -3.6277e-01

(3,3,.,.) = 
 -4.5763e-02  3.8173e-02 -1.2968e-02
  3.8715e-03  1.7794e-01 -1.9258e-01
  5.3136e-02  1.8061e-01 -1.7725e-01

(4,3,.,.) = 
 -5.3097e-02  4.3465e-02 -3.8112e-03
 -1.1543e-02  1.9682e-01 -2.5340e-01
  4.3460e-02  2.2345e-01 -2.3671e-01

(5,3,.,.) = 
 -9.4158e-03  2.7701e-02 -5.2269e-03
 -3.6760e-02 -8.3811e-02 -4.1053e-02
 -1.6693e-02 -8.6652e-02 -8.2248e-02

(6,3,.,.) = 
  1.5273e-02 -3.5233e-03 -1.0641e-02
  2.7773e-02  1.0430e-01  1.5547e-02
  6.9554e-02  1.3962e-01  6.6056e-02

(7,3,.,.) = 
 -3.6641e-02 -7.4343e-02 -6.8783e-02
 -2.9042e-02 -1.5399e-01 -1.5450e-01
  8.6067e-03 -9.1386e-02 -8.7739e-02

(8,3,.,.) = 
  2.5044e-02 -8.7090e-02 -8.6947e-02
  6.1076e-02  4.5359e-01  3.1991e-01
  1.6789e-02  4.9805e-01  3.6630e-01

(9,3,.,.) = 
  1.0491e-10  8.9381e-11  1.2391e-10
  1.4509e-10  1.3243e-10  1.6411e-10
  1.1058e-10  1.0547e-10  1.7966e-10

(10,3,.,.) = 
  1.2154e-11  1.2371e-11  1.1271e-11
  1.0118e-11  1.1914e-11  9.4599e-12
  1.1867e-11  1.1771e-11  1.2338e-11

(11,3,.,.) = 
  2.0925e-02 -5.4130e-03  2.8135e-02
 -1.2963e-01 -9.7823e-02  2.9064e-02
  1.4468e-01 -8.1336e-04  6.5418e-03

(12,3,.,.) = 
 -8.3173e-02  4.2134e-02  3.4514e-02
 -1.3758e-01  2.5527e-02  1.1374e-01
 -8.3224e-02  3.9922e-02  7.3735e-02

(13,3,.,.) = 
 -1.2715e-01  1.7626e-01  1.6198e-01
  6.3284e-02 -4.1625e-01 -3.0682e-01
  1.4505e-01 -5.7572e-01 -5.0671e-01

(14,3,.,.) = 
  4.4129e-12  1.0094e-11  9.7701e-12
  3.1394e-12  8.5773e-12  9.4317e-12
  3.1862e-12  8.5929e-12  1.0603e-11

(15,3,.,.) = 
  9.9782e-11 -2.2501e-10  9.4642e-11
  7.8101e-11  5.4342e-13  9.8188e-11
  6.3818e-11  1.9721e-10  3.7607e-11

(16,3,.,.) = 
 -8.2885e-02  2.3560e-01 -1.3809e-01
 -9.3868e-02  1.7905e-01 -7.9770e-02
 -2.6421e-02  4.1594e-02 -3.1996e-02

(17,3,.,.) = 
  6.5604e-12  6.1866e-12  4.5289e-12
  9.3637e-12  9.8013e-12  9.4789e-12
  1.0558e-11  1.1771e-11  1.0975e-11

(18,3,.,.) = 
 -6.2311e-02 -1.2608e-01 -1.0238e-01
 -1.9339e-01 -3.0287e-01 -3.1513e-01
 -9.9403e-02 -2.8667e-01 -2.5875e-01

(19,3,.,.) = 
  1.1214e-01  3.0555e-02  1.8713e-04
  9.9973e-02 -1.8507e-01 -1.0492e-02
  2.8810e-02 -4.0571e-02 -2.3875e-02

(20,3,.,.) = 
 -7.5298e-03  3.8238e-02 -1.2588e-01
  1.6375e-02 -2.3162e-03  7.2639e-03
  2.1019e-02  3.7709e-02  5.2218e-02

(21,3,.,.) = 
 -3.8163e-02 -1.5431e-01 -1.7117e-01
  1.1444e-02  1.7756e-01  1.9407e-01
  2.6783e-03 -1.0993e-02 -1.0600e-02

(22,3,.,.) = 
  7.9595e-12  3.8756e-12  1.0436e-11
 -6.9573e-12 -6.8473e-12 -1.0814e-12
  6.8018e-13  5.6365e-12 -3.0105e-12

(23,3,.,.) = 
  7.5048e-13  1.6865e-12  3.3843e-13
 -2.2411e-13  1.7091e-13  8.5408e-13
  1.1876e-12 -1.3064e-12 -3.0027e-13

(24,3,.,.) = 
  1.8521e-03  2.8919e-02 -1.1236e-02
 -7.0613e-02 -1.6699e-01 -1.4745e-01
  5.1808e-02  1.4850e-01  1.5406e-01

(25,3,.,.) = 
 -1.9182e-12 -2.9961e-12 -1.1747e-12
  6.2700e-13 -1.6346e-12 -3.4161e-12
 -5.3334e-13 -1.7937e-12 -2.4387e-12

(26,3,.,.) = 
 -2.0640e-02  1.2105e-01  2.6629e-02
  2.5740e-02  1.2030e-01 -1.2996e-02
 -2.4804e-02 -2.3418e-01 -4.3455e-02

(27,3,.,.) = 
  2.1240e-12  6.8364e-13  4.9784e-13
  6.1066e-13 -5.3233e-13  1.3047e-12
 -6.2644e-13 -3.3329e-12 -1.4432e-12

(28,3,.,.) = 
  1.2865e-01  3.1073e-01  2.8374e-01
  2.7810e-01  5.0251e-01  4.3517e-01
  2.6724e-01  4.1367e-01  3.4834e-01

(29,3,.,.) = 
  1.9901e-12  4.7240e-12  2.2992e-12
  2.2401e-12  4.1205e-12  3.8224e-12
  2.1811e-12  2.3531e-12  1.6742e-12

(30,3,.,.) = 
 -4.8130e-04  1.8057e-02 -8.3291e-03
  1.0873e-01 -1.5185e-01  5.5381e-02
  1.1514e-01 -1.1592e-01  2.9589e-03

(31,3,.,.) = 
 -8.6146e-02 -2.7376e-02  7.6068e-02
 -2.6236e-02  1.1739e-01  2.6917e-01
 -7.6008e-02  1.9246e-02  1.0272e-01

(32,3,.,.) = 
 -7.0850e-02  1.5621e-02  9.1857e-02
  2.8845e-02  1.9322e-02 -1.1585e-02
  2.5156e-02 -7.7769e-02 -1.8730e-01
[torch.CudaTensor of size 32x3x3x3]
(1,1,.,.) = 
  8.7806e-13  3.2632e-13  1.0845e-12
  3.2378e-12  1.4396e-12 -2.3380e-13
  1.4701e-12  1.4406e-12  1.7794e-12

(2,1,.,.) = 
 -9.4309e-02 -2.0627e-01 -2.2922e-01
 -2.1990e-01 -2.5408e-01 -2.8000e-01
 -1.5576e-01 -2.1540e-01 -2.4821e-01

(3,1,.,.) = 
 -9.1395e-02  2.3038e-02 -4.1614e-02
 -8.7542e-03  3.4400e-01 -3.5246e-01
  9.7339e-02  3.7879e-01 -3.6974e-01

(4,1,.,.) = 
 -5.9938e-02  9.2651e-02 -5.7267e-02
 -1.4195e-02  2.9583e-01 -3.1351e-01
  1.4843e-02  3.1264e-01 -3.1144e-01

(5,1,.,.) = 
  1.0741e-02  2.5705e-02 -1.9224e-02
 -5.9532e-02 -1.3945e-01 -8.9031e-02
 -4.2281e-02 -1.6569e-01 -1.1853e-01

(6,1,.,.) = 
 -1.8549e-02 -8.4876e-04  3.5679e-03
  5.0021e-02  1.6672e-01  6.5549e-02
  9.5748e-02  2.3442e-01  1.0206e-01

(7,1,.,.) = 
 -6.6961e-03  9.2725e-02  7.4246e-02
  2.8935e-02  1.1000e-01  8.9832e-02
 -3.0927e-02  6.6829e-02  6.7839e-02

(8,1,.,.) = 
  4.9222e-02 -1.8429e-02 -8.0828e-02
 -1.9221e-01 -5.9889e-01 -4.3276e-01
 -1.9592e-01 -5.8462e-01 -4.5092e-01

(9,1,.,.) = 
 -1.2244e-10 -1.7132e-10 -7.1544e-11
 -2.3672e-10 -3.1042e-10 -1.9690e-10
 -2.4402e-10 -2.9637e-10 -1.8709e-10

(10,1,.,.) = 
 -3.3245e-12 -1.7422e-13 -6.5070e-13
 -2.1918e-12  1.8232e-12  1.6408e-12
 -4.5884e-13  5.1355e-12  2.5327e-13

(11,1,.,.) = 
  1.3128e-02 -3.9764e-03  5.9300e-02
 -2.5229e-01 -2.1622e-01  9.8815e-02
  2.4611e-01 -9.9635e-04  5.9264e-02

(12,1,.,.) = 
 -1.7413e-01  6.6852e-02  1.3210e-01
 -3.2311e-01  4.7126e-02  2.4531e-01
 -2.4753e-01  8.8961e-02  1.7915e-01

(13,1,.,.) = 
 -7.5042e-02 -1.3176e-01 -4.5801e-02
  9.9340e-02  7.0809e-01  4.0673e-01
  6.8135e-02  8.0330e-01  5.6060e-01

(14,1,.,.) = 
  2.3457e-12  5.1029e-13 -3.5143e-12
  1.0364e-12  3.3106e-12 -2.8338e-12
  9.3909e-13  2.1500e-12 -2.2391e-12

(15,1,.,.) = 
  4.1773e-11 -3.4877e-10  3.8304e-11
  5.1434e-11 -6.1461e-11  7.4438e-11
  1.0433e-10  2.2905e-10  3.4028e-11

(16,1,.,.) = 
 -1.1512e-01  3.4780e-01 -1.6252e-01
 -1.8150e-01  3.8945e-01 -1.9793e-01
 -9.3504e-02  1.6425e-01 -1.0780e-01

(17,1,.,.) = 
 -2.1315e-12 -2.4676e-12  9.5449e-13
 -2.7765e-13 -6.1242e-13 -1.4831e-12
 -3.7247e-12 -2.1092e-12 -2.2097e-12

(18,1,.,.) = 
  1.6651e-01  3.6931e-01  2.9331e-01
  3.7210e-01  7.0993e-01  6.1205e-01
  2.5883e-01  5.5125e-01  4.7656e-01

(19,1,.,.) = 
  2.5289e-01  6.4702e-02  2.1100e-02
  1.6392e-01 -3.3564e-01 -3.3816e-02
  3.9904e-02 -1.0560e-01 -4.7520e-02

(20,1,.,.) = 
  3.2370e-02 -4.4910e-02 -2.9138e-01
  4.6347e-02 -4.4546e-02 -5.2443e-02
  3.3385e-02  2.0254e-02  2.0910e-02

(21,1,.,.) = 
 -9.1636e-02 -3.5058e-01 -3.3105e-01
  4.4065e-02  3.1840e-01  3.6130e-01
  2.8281e-02  5.1852e-02  2.0678e-04

(22,1,.,.) = 
  7.7130e-12  6.3105e-12  1.0585e-11
 -7.8486e-12 -1.1801e-11 -1.4239e-13
 -4.3768e-12  5.6540e-12 -8.0385e-13

(23,1,.,.) = 
 -2.2981e-12 -3.2205e-12 -1.4155e-12
 -2.1330e-12 -4.6416e-13 -4.4743e-12
 -1.9826e-12 -3.0369e-12 -1.4012e-12

(24,1,.,.) = 
 -1.0686e-02  6.5042e-02  5.0552e-02
 -1.4184e-01 -4.0817e-01 -3.6932e-01
  1.0069e-01  3.7694e-01  3.3282e-01

(25,1,.,.) = 
 -7.8773e-14  7.7095e-13 -3.6073e-13
  4.9249e-14 -1.6497e-12 -2.3299e-13
 -5.0251e-12 -1.9733e-12 -1.4864e-12

(26,1,.,.) = 
  6.8990e-03  2.6856e-01  5.3476e-02
  6.7287e-02  2.3207e-01  3.3244e-03
 -1.3281e-01 -4.1467e-01 -7.7985e-02

(27,1,.,.) = 
  3.2484e-12  2.4551e-12  2.6222e-12
  2.9344e-12  6.7684e-13  3.1971e-12
  2.3640e-12  3.4061e-13  4.2734e-12

(28,1,.,.) = 
  1.2776e-01  1.7090e-01  1.3434e-01
  2.0279e-01  2.3020e-01  1.7790e-01
  1.3842e-01  1.4799e-01  1.3135e-01

(29,1,.,.) = 
 -9.6507e-13  9.3592e-13 -2.1328e-12
  1.9187e-12  9.9489e-13 -2.5141e-13
  4.6699e-14 -1.3306e-12 -1.2557e-12

(30,1,.,.) = 
  7.6189e-03 -2.0377e-02  2.3305e-02
  2.3177e-01 -2.8850e-01  5.8833e-02
  3.2788e-01 -2.9093e-01 -3.1795e-03

(31,1,.,.) = 
 -5.8239e-02  8.2055e-03  1.8054e-01
 -7.7971e-02  1.0046e-01  3.3818e-01
 -1.0199e-01  5.1990e-02  1.7231e-01

(32,1,.,.) = 
 -8.9566e-02  4.6023e-02  1.2694e-01
  3.1523e-02 -2.2265e-03 -6.1002e-02
  1.0586e-01 -6.2634e-02 -1.9674e-01

(1,2,.,.) = 
 -4.2432e-13  1.9772e-12  5.2097e-13
  3.7064e-12 -9.4348e-13  1.8831e-12
 -3.4687e-13  1.1104e-12  3.0071e-12

(2,2,.,.) = 
  2.2400e-01  4.1895e-01  3.7852e-01
  4.7478e-01  7.4131e-01  6.5616e-01
  3.7170e-01  5.8185e-01  5.0989e-01

(3,2,.,.) = 
 -1.8219e-01  8.1472e-02 -1.0521e-01
  2.9220e-02  6.4096e-01 -6.5587e-01
  1.9109e-01  6.6555e-01 -6.7320e-01

(4,2,.,.) = 
 -7.9813e-02  1.1178e-01 -4.1727e-02
  3.3520e-02  3.1173e-01 -3.2808e-01
  8.2743e-02  3.4442e-01 -3.6202e-01

(5,2,.,.) = 
  2.5471e-02  4.9859e-03 -2.6901e-02
 -6.9760e-02 -2.4729e-01 -1.5627e-01
 -7.7827e-02 -2.7092e-01 -2.5438e-01

(6,2,.,.) = 
 -2.1934e-02  2.1048e-02 -3.0229e-04
  7.5332e-02  2.9395e-01  1.3867e-01
  1.4973e-01  3.5844e-01  2.5759e-01

(7,2,.,.) = 
  9.5755e-03 -2.8601e-02 -1.9839e-02
 -1.0366e-04 -1.2205e-01 -1.1017e-01
  3.2885e-02 -6.6007e-02 -6.5111e-02

(8,2,.,.) = 
 -5.2891e-02  9.1064e-02  1.5273e-01
  1.3169e-01  1.6024e-01  1.0208e-01
  1.8873e-01  1.2566e-01  5.5747e-02

(9,2,.,.) = 
 -2.3189e-11 -5.8851e-11  2.2628e-11
 -9.8779e-11 -1.5043e-10 -5.3501e-11
 -1.3861e-10 -1.5529e-10 -5.5376e-11

(10,2,.,.) = 
 -5.5220e-12 -5.4851e-12 -5.6856e-12
 -6.9028e-12 -2.5131e-12 -6.5288e-12
 -5.5993e-12 -2.0364e-12 -3.1994e-12

(11,2,.,.) = 
 -8.2216e-03  2.3730e-02  1.4872e-01
 -4.5549e-01 -3.4326e-01  1.6625e-01
  3.9138e-01  3.8545e-02  1.7823e-02

(12,2,.,.) = 
 -2.9452e-01  6.4276e-02  2.3285e-01
 -5.9494e-01  3.2931e-02  5.4351e-01
 -3.1524e-01  8.9380e-02  2.1132e-01

(13,2,.,.) = 
  1.9725e-01 -2.9333e-02 -1.3048e-01
 -1.5491e-01 -2.8436e-01 -1.0045e-01
 -2.0170e-01 -2.0768e-01 -5.2889e-02

(14,2,.,.) = 
  1.9138e-11  2.3503e-11  2.3441e-11
  2.2906e-11  2.2174e-11  2.1773e-11
  2.0790e-11  2.0626e-11  2.2149e-11

(15,2,.,.) = 
  4.3414e-11 -3.6860e-10  2.9004e-11
  2.4960e-11 -8.2348e-11  7.2940e-11
  5.6099e-11  2.3166e-10  3.5092e-11

(16,2,.,.) = 
 -1.8282e-01  6.8250e-01 -3.9750e-01
 -3.3932e-01  6.5800e-01 -3.4271e-01
 -9.5874e-02  1.1700e-01 -1.0320e-01

(17,2,.,.) = 
  3.1022e-12 -9.0022e-15 -1.1484e-12
  5.1006e-13  2.1567e-12  3.8449e-12
  3.4187e-12  2.5163e-12  4.9040e-12

(18,2,.,.) = 
 -8.1381e-02 -2.2509e-01 -1.9463e-01
 -1.9370e-01 -3.3554e-01 -2.9919e-01
 -1.3315e-01 -2.7706e-01 -2.3259e-01

(19,2,.,.) = 
  5.4901e-01  7.7630e-02 -1.1725e-03
  2.7756e-01 -6.1555e-01 -9.1943e-02
  1.7292e-02 -1.6250e-01 -4.9709e-02

(20,2,.,.) = 
 -3.0052e-02 -4.8019e-02 -2.5911e-01
  4.4774e-03 -5.3087e-02 -3.9352e-02
 -1.5865e-03  7.2407e-03  1.1325e-02

(21,2,.,.) = 
 -1.7188e-01 -6.7774e-01 -6.5892e-01
  1.3289e-01  5.9094e-01  6.9804e-01
  1.7806e-02  6.3756e-02  2.4178e-03

(22,2,.,.) = 
  9.4892e-12  1.7195e-12  9.8185e-12
 -6.1331e-12 -1.0308e-11 -3.8626e-12
  4.2753e-12  1.1356e-11  2.4150e-12

(23,2,.,.) = 
 -1.6465e-12 -4.2368e-12 -1.1100e-12
 -1.7310e-12 -1.3073e-12 -1.2259e-12
 -3.2019e-12 -9.4359e-13 -2.7725e-12

(24,2,.,.) = 
  2.2576e-02  5.7803e-02  4.6555e-02
 -2.4880e-01 -7.1758e-01 -6.5418e-01
  2.0339e-01  6.2813e-01  6.4100e-01

(25,2,.,.) = 
 -2.0626e-12  2.2512e-12  1.0958e-12
  1.5453e-12  1.2438e-12 -6.4296e-13
 -1.5395e-12 -4.2528e-15 -2.2888e-13

(26,2,.,.) = 
  6.6120e-02  4.8452e-01  8.3299e-02
  5.8451e-02  3.9054e-01  1.4285e-03
 -2.1069e-01 -7.5299e-01 -1.5567e-01

(27,2,.,.) = 
 -2.1631e-13  8.6551e-13  1.4927e-12
  1.9958e-12 -2.4708e-12 -6.5677e-13
 -8.2651e-13 -3.5546e-13  1.4840e-12

(28,2,.,.) = 
 -1.8284e-01 -3.8441e-01 -3.7379e-01
 -4.4993e-01 -6.7454e-01 -6.4315e-01
 -3.7884e-01 -6.0972e-01 -5.6395e-01

(29,2,.,.) = 
  2.1812e-13  4.2389e-12 -8.6979e-13
  1.3095e-12  5.2971e-12  9.4233e-13
  3.6080e-12  2.9197e-12  2.7999e-12

(30,2,.,.) = 
  4.7182e-02 -8.1931e-02  4.3099e-02
  4.3212e-01 -6.1457e-01  9.1344e-02
  5.7128e-01 -5.7218e-01  1.6607e-03

(31,2,.,.) = 
 -1.1002e-01  2.5244e-02  2.0562e-01
 -9.1961e-02  1.9335e-01  4.2663e-01
 -1.7258e-01  4.9025e-02  2.0957e-01

(32,2,.,.) = 
 -1.2561e-02  8.1091e-02  1.4326e-01
  4.6969e-02 -5.6475e-02 -1.4408e-01
  6.5215e-02 -1.7106e-01 -3.7471e-01

(1,3,.,.) = 
  2.2557e-12  3.4205e-12  4.8088e-12
  4.8432e-12  1.1483e-12  3.3143e-12
  1.8442e-12 -4.4494e-13  3.8697e-13

(2,3,.,.) = 
 -7.4878e-02 -1.5183e-01 -1.3569e-01
 -2.5425e-01 -4.3485e-01 -3.9514e-01
 -2.0829e-01 -3.8110e-01 -3.6277e-01

(3,3,.,.) = 
 -4.5763e-02  3.8173e-02 -1.2968e-02
  3.8715e-03  1.7794e-01 -1.9258e-01
  5.3136e-02  1.8061e-01 -1.7725e-01

(4,3,.,.) = 
 -5.3097e-02  4.3465e-02 -3.8112e-03
 -1.1543e-02  1.9682e-01 -2.5340e-01
  4.3460e-02  2.2345e-01 -2.3671e-01

(5,3,.,.) = 
 -9.4158e-03  2.7701e-02 -5.2269e-03
 -3.6760e-02 -8.3811e-02 -4.1053e-02
 -1.6693e-02 -8.6652e-02 -8.2248e-02

(6,3,.,.) = 
  1.5273e-02 -3.5233e-03 -1.0641e-02
  2.7773e-02  1.0430e-01  1.5547e-02
  6.9554e-02  1.3962e-01  6.6056e-02

(7,3,.,.) = 
 -3.6641e-02 -7.4343e-02 -6.8783e-02
 -2.9042e-02 -1.5399e-01 -1.5450e-01
  8.6067e-03 -9.1386e-02 -8.7739e-02

(8,3,.,.) = 
  2.5044e-02 -8.7090e-02 -8.6947e-02
  6.1076e-02  4.5359e-01  3.1991e-01
  1.6789e-02  4.9805e-01  3.6630e-01

(9,3,.,.) = 
  1.0491e-10  8.9381e-11  1.2391e-10
  1.4509e-10  1.3243e-10  1.6411e-10
  1.1058e-10  1.0547e-10  1.7966e-10

(10,3,.,.) = 
  1.2154e-11  1.2371e-11  1.1271e-11
  1.0118e-11  1.1914e-11  9.4599e-12
  1.1867e-11  1.1771e-11  1.2338e-11

(11,3,.,.) = 
  2.0925e-02 -5.4130e-03  2.8135e-02
 -1.2963e-01 -9.7823e-02  2.9064e-02
  1.4468e-01 -8.1336e-04  6.5418e-03

(12,3,.,.) = 
 -8.3173e-02  4.2134e-02  3.4514e-02
 -1.3758e-01  2.5527e-02  1.1374e-01
 -8.3224e-02  3.9922e-02  7.3735e-02

(13,3,.,.) = 
 -1.2715e-01  1.7626e-01  1.6198e-01
  6.3284e-02 -4.1625e-01 -3.0682e-01
  1.4505e-01 -5.7572e-01 -5.0671e-01

(14,3,.,.) = 
  4.4129e-12  1.0094e-11  9.7701e-12
  3.1394e-12  8.5773e-12  9.4317e-12
  3.1862e-12  8.5929e-12  1.0603e-11

(15,3,.,.) = 
  9.9782e-11 -2.2501e-10  9.4642e-11
  7.8101e-11  5.4342e-13  9.8188e-11
  6.3818e-11  1.9721e-10  3.7607e-11

(16,3,.,.) = 
 -8.2885e-02  2.3560e-01 -1.3809e-01
 -9.3868e-02  1.7905e-01 -7.9770e-02
 -2.6421e-02  4.1594e-02 -3.1996e-02

(17,3,.,.) = 
  6.5604e-12  6.1866e-12  4.5289e-12
  9.3637e-12  9.8013e-12  9.4789e-12
  1.0558e-11  1.1771e-11  1.0975e-11

(18,3,.,.) = 
 -6.2311e-02 -1.2608e-01 -1.0238e-01
 -1.9339e-01 -3.0287e-01 -3.1513e-01
 -9.9403e-02 -2.8667e-01 -2.5875e-01

(19,3,.,.) = 
  1.1214e-01  3.0555e-02  1.8713e-04
  9.9973e-02 -1.8507e-01 -1.0492e-02
  2.8810e-02 -4.0571e-02 -2.3875e-02

(20,3,.,.) = 
 -7.5298e-03  3.8238e-02 -1.2588e-01
  1.6375e-02 -2.3162e-03  7.2639e-03
  2.1019e-02  3.7709e-02  5.2218e-02

(21,3,.,.) = 
 -3.8163e-02 -1.5431e-01 -1.7117e-01
  1.1444e-02  1.7756e-01  1.9407e-01
  2.6783e-03 -1.0993e-02 -1.0600e-02

(22,3,.,.) = 
  7.9595e-12  3.8756e-12  1.0436e-11
 -6.9573e-12 -6.8473e-12 -1.0814e-12
  6.8018e-13  5.6365e-12 -3.0105e-12

(23,3,.,.) = 
  7.5048e-13  1.6865e-12  3.3843e-13
 -2.2411e-13  1.7091e-13  8.5408e-13
  1.1876e-12 -1.3064e-12 -3.0027e-13

(24,3,.,.) = 
  1.8521e-03  2.8919e-02 -1.1236e-02
 -7.0613e-02 -1.6699e-01 -1.4745e-01
  5.1808e-02  1.4850e-01  1.5406e-01

(25,3,.,.) = 
 -1.9182e-12 -2.9961e-12 -1.1747e-12
  6.2700e-13 -1.6346e-12 -3.4161e-12
 -5.3334e-13 -1.7937e-12 -2.4387e-12

(26,3,.,.) = 
 -2.0640e-02  1.2105e-01  2.6629e-02
  2.5740e-02  1.2030e-01 -1.2996e-02
 -2.4804e-02 -2.3418e-01 -4.3455e-02

(27,3,.,.) = 
  2.1240e-12  6.8364e-13  4.9784e-13
  6.1066e-13 -5.3233e-13  1.3047e-12
 -6.2644e-13 -3.3329e-12 -1.4432e-12

(28,3,.,.) = 
  1.2865e-01  3.1073e-01  2.8374e-01
  2.7810e-01  5.0251e-01  4.3517e-01
  2.6724e-01  4.1367e-01  3.4834e-01

(29,3,.,.) = 
  1.9901e-12  4.7240e-12  2.2992e-12
  2.2401e-12  4.1205e-12  3.8224e-12
  2.1811e-12  2.3531e-12  1.6742e-12

(30,3,.,.) = 
 -4.8130e-04  1.8057e-02 -8.3291e-03
  1.0873e-01 -1.5185e-01  5.5381e-02
  1.1514e-01 -1.1592e-01  2.9589e-03

(31,3,.,.) = 
 -8.6146e-02 -2.7376e-02  7.6068e-02
 -2.6236e-02  1.1739e-01  2.6917e-01
 -7.6008e-02  1.9246e-02  1.0272e-01

(32,3,.,.) = 
 -7.0850e-02  1.5621e-02  9.1857e-02
  2.8845e-02  1.9322e-02 -1.1585e-02
  2.5156e-02 -7.7769e-02 -1.8730e-01
[torch.CudaTensor of size 32x3x3x3]
(1,1,.,.) = 
  8.7806e-13  3.2632e-13  1.0845e-12
  3.2378e-12  1.4396e-12 -2.3380e-13
  1.4701e-12  1.4406e-12  1.7794e-12

(2,1,.,.) = 
 -9.4309e-02 -2.0627e-01 -2.2922e-01
 -2.1990e-01 -2.5408e-01 -2.8000e-01
 -1.5576e-01 -2.1540e-01 -2.4821e-01

(3,1,.,.) = 
 -9.1395e-02  2.3038e-02 -4.1614e-02
 -8.7542e-03  3.4400e-01 -3.5246e-01
  9.7339e-02  3.7879e-01 -3.6974e-01

(4,1,.,.) = 
 -5.9938e-02  9.2651e-02 -5.7267e-02
 -1.4195e-02  2.9583e-01 -3.1351e-01
  1.4843e-02  3.1264e-01 -3.1144e-01

(5,1,.,.) = 
  1.0741e-02  2.5705e-02 -1.9224e-02
 -5.9532e-02 -1.3945e-01 -8.9031e-02
 -4.2281e-02 -1.6569e-01 -1.1853e-01

(6,1,.,.) = 
 -1.8549e-02 -8.4876e-04  3.5679e-03
  5.0021e-02  1.6672e-01  6.5549e-02
  9.5748e-02  2.3442e-01  1.0206e-01

(7,1,.,.) = 
 -6.6961e-03  9.2725e-02  7.4246e-02
  2.8935e-02  1.1000e-01  8.9832e-02
 -3.0927e-02  6.6829e-02  6.7839e-02

(8,1,.,.) = 
  4.9222e-02 -1.8429e-02 -8.0828e-02
 -1.9221e-01 -5.9889e-01 -4.3276e-01
 -1.9592e-01 -5.8462e-01 -4.5092e-01

(9,1,.,.) = 
 -1.2244e-10 -1.7132e-10 -7.1544e-11
 -2.3672e-10 -3.1042e-10 -1.9690e-10
 -2.4402e-10 -2.9637e-10 -1.8709e-10

(10,1,.,.) = 
 -3.3245e-12 -1.7422e-13 -6.5070e-13
 -2.1918e-12  1.8232e-12  1.6408e-12
 -4.5884e-13  5.1355e-12  2.5327e-13

(11,1,.,.) = 
  1.3128e-02 -3.9764e-03  5.9300e-02
 -2.5229e-01 -2.1622e-01  9.8815e-02
  2.4611e-01 -9.9635e-04  5.9264e-02

(12,1,.,.) = 
 -1.7413e-01  6.6852e-02  1.3210e-01
 -3.2311e-01  4.7126e-02  2.4531e-01
 -2.4753e-01  8.8961e-02  1.7915e-01

(13,1,.,.) = 
 -7.5042e-02 -1.3176e-01 -4.5801e-02
  9.9340e-02  7.0809e-01  4.0673e-01
  6.8135e-02  8.0330e-01  5.6060e-01

(14,1,.,.) = 
  2.3457e-12  5.1029e-13 -3.5143e-12
  1.0364e-12  3.3106e-12 -2.8338e-12
  9.3909e-13  2.1500e-12 -2.2391e-12

(15,1,.,.) = 
  4.1773e-11 -3.4877e-10  3.8304e-11
  5.1434e-11 -6.1461e-11  7.4438e-11
  1.0433e-10  2.2905e-10  3.4028e-11

(16,1,.,.) = 
 -1.1512e-01  3.4780e-01 -1.6252e-01
 -1.8150e-01  3.8945e-01 -1.9793e-01
 -9.3504e-02  1.6425e-01 -1.0780e-01

(17,1,.,.) = 
 -2.1315e-12 -2.4676e-12  9.5449e-13
 -2.7765e-13 -6.1242e-13 -1.4831e-12
 -3.7247e-12 -2.1092e-12 -2.2097e-12

(18,1,.,.) = 
  1.6651e-01  3.6931e-01  2.9331e-01
  3.7210e-01  7.0993e-01  6.1205e-01
  2.5883e-01  5.5125e-01  4.7656e-01

(19,1,.,.) = 
  2.5289e-01  6.4702e-02  2.1100e-02
  1.6392e-01 -3.3564e-01 -3.3816e-02
  3.9904e-02 -1.0560e-01 -4.7520e-02

(20,1,.,.) = 
  3.2370e-02 -4.4910e-02 -2.9138e-01
  4.6347e-02 -4.4546e-02 -5.2443e-02
  3.3385e-02  2.0254e-02  2.0910e-02

(21,1,.,.) = 
 -9.1636e-02 -3.5058e-01 -3.3105e-01
  4.4065e-02  3.1840e-01  3.6130e-01
  2.8281e-02  5.1852e-02  2.0678e-04

(22,1,.,.) = 
  7.7130e-12  6.3105e-12  1.0585e-11
 -7.8486e-12 -1.1801e-11 -1.4239e-13
 -4.3768e-12  5.6540e-12 -8.0385e-13

(23,1,.,.) = 
 -2.2981e-12 -3.2205e-12 -1.4155e-12
 -2.1330e-12 -4.6416e-13 -4.4743e-12
 -1.9826e-12 -3.0369e-12 -1.4012e-12

(24,1,.,.) = 
 -1.0686e-02  6.5042e-02  5.0552e-02
 -1.4184e-01 -4.0817e-01 -3.6932e-01
  1.0069e-01  3.7694e-01  3.3282e-01

(25,1,.,.) = 
 -7.8773e-14  7.7095e-13 -3.6073e-13
  4.9249e-14 -1.6497e-12 -2.3299e-13
 -5.0251e-12 -1.9733e-12 -1.4864e-12

(26,1,.,.) = 
  6.8990e-03  2.6856e-01  5.3476e-02
  6.7287e-02  2.3207e-01  3.3244e-03
 -1.3281e-01 -4.1467e-01 -7.7985e-02

(27,1,.,.) = 
  3.2484e-12  2.4551e-12  2.6222e-12
  2.9344e-12  6.7684e-13  3.1971e-12
  2.3640e-12  3.4061e-13  4.2734e-12

(28,1,.,.) = 
  1.2776e-01  1.7090e-01  1.3434e-01
  2.0279e-01  2.3020e-01  1.7790e-01
  1.3842e-01  1.4799e-01  1.3135e-01

(29,1,.,.) = 
 -9.6507e-13  9.3592e-13 -2.1328e-12
  1.9187e-12  9.9489e-13 -2.5141e-13
  4.6699e-14 -1.3306e-12 -1.2557e-12

(30,1,.,.) = 
  7.6189e-03 -2.0377e-02  2.3305e-02
  2.3177e-01 -2.8850e-01  5.8833e-02
  3.2788e-01 -2.9093e-01 -3.1795e-03

(31,1,.,.) = 
 -5.8239e-02  8.2055e-03  1.8054e-01
 -7.7971e-02  1.0046e-01  3.3818e-01
 -1.0199e-01  5.1990e-02  1.7231e-01

(32,1,.,.) = 
 -8.9566e-02  4.6023e-02  1.2694e-01
  3.1523e-02 -2.2265e-03 -6.1002e-02
  1.0586e-01 -6.2634e-02 -1.9674e-01

(1,2,.,.) = 
 -4.2432e-13  1.9772e-12  5.2097e-13
  3.7064e-12 -9.4348e-13  1.8831e-12
 -3.4687e-13  1.1104e-12  3.0071e-12

(2,2,.,.) = 
  2.2400e-01  4.1895e-01  3.7852e-01
  4.7478e-01  7.4131e-01  6.5616e-01
  3.7170e-01  5.8185e-01  5.0989e-01

(3,2,.,.) = 
 -1.8219e-01  8.1472e-02 -1.0521e-01
  2.9220e-02  6.4096e-01 -6.5587e-01
  1.9109e-01  6.6555e-01 -6.7320e-01

(4,2,.,.) = 
 -7.9813e-02  1.1178e-01 -4.1727e-02
  3.3520e-02  3.1173e-01 -3.2808e-01
  8.2743e-02  3.4442e-01 -3.6202e-01

(5,2,.,.) = 
  2.5471e-02  4.9859e-03 -2.6901e-02
 -6.9760e-02 -2.4729e-01 -1.5627e-01
 -7.7827e-02 -2.7092e-01 -2.5438e-01

(6,2,.,.) = 
 -2.1934e-02  2.1048e-02 -3.0229e-04
  7.5332e-02  2.9395e-01  1.3867e-01
  1.4973e-01  3.5844e-01  2.5759e-01

(7,2,.,.) = 
  9.5755e-03 -2.8601e-02 -1.9839e-02
 -1.0366e-04 -1.2205e-01 -1.1017e-01
  3.2885e-02 -6.6007e-02 -6.5111e-02

(8,2,.,.) = 
 -5.2891e-02  9.1064e-02  1.5273e-01
  1.3169e-01  1.6024e-01  1.0208e-01
  1.8873e-01  1.2566e-01  5.5747e-02

(9,2,.,.) = 
 -2.3189e-11 -5.8851e-11  2.2628e-11
 -9.8779e-11 -1.5043e-10 -5.3501e-11
 -1.3861e-10 -1.5529e-10 -5.5376e-11

(10,2,.,.) = 
 -5.5220e-12 -5.4851e-12 -5.6856e-12
 -6.9028e-12 -2.5131e-12 -6.5288e-12
 -5.5993e-12 -2.0364e-12 -3.1994e-12

(11,2,.,.) = 
 -8.2216e-03  2.3730e-02  1.4872e-01
 -4.5549e-01 -3.4326e-01  1.6625e-01
  3.9138e-01  3.8545e-02  1.7823e-02

(12,2,.,.) = 
 -2.9452e-01  6.4276e-02  2.3285e-01
 -5.9494e-01  3.2931e-02  5.4351e-01
 -3.1524e-01  8.9380e-02  2.1132e-01

(13,2,.,.) = 
  1.9725e-01 -2.9333e-02 -1.3048e-01
 -1.5491e-01 -2.8436e-01 -1.0045e-01
 -2.0170e-01 -2.0768e-01 -5.2889e-02

(14,2,.,.) = 
  1.9138e-11  2.3503e-11  2.3441e-11
  2.2906e-11  2.2174e-11  2.1773e-11
  2.0790e-11  2.0626e-11  2.2149e-11

(15,2,.,.) = 
  4.3414e-11 -3.6860e-10  2.9004e-11
  2.4960e-11 -8.2348e-11  7.2940e-11
  5.6099e-11  2.3166e-10  3.5092e-11

(16,2,.,.) = 
 -1.8282e-01  6.8250e-01 -3.9750e-01
 -3.3932e-01  6.5800e-01 -3.4271e-01
 -9.5874e-02  1.1700e-01 -1.0320e-01

(17,2,.,.) = 
  3.1022e-12 -9.0022e-15 -1.1484e-12
  5.1006e-13  2.1567e-12  3.8449e-12
  3.4187e-12  2.5163e-12  4.9040e-12

(18,2,.,.) = 
 -8.1381e-02 -2.2509e-01 -1.9463e-01
 -1.9370e-01 -3.3554e-01 -2.9919e-01
 -1.3315e-01 -2.7706e-01 -2.3259e-01

(19,2,.,.) = 
  5.4901e-01  7.7630e-02 -1.1725e-03
  2.7756e-01 -6.1555e-01 -9.1943e-02
  1.7292e-02 -1.6250e-01 -4.9709e-02

(20,2,.,.) = 
 -3.0052e-02 -4.8019e-02 -2.5911e-01
  4.4774e-03 -5.3087e-02 -3.9352e-02
 -1.5865e-03  7.2407e-03  1.1325e-02

(21,2,.,.) = 
 -1.7188e-01 -6.7774e-01 -6.5892e-01
  1.3289e-01  5.9094e-01  6.9804e-01
  1.7806e-02  6.3756e-02  2.4178e-03

(22,2,.,.) = 
  9.4892e-12  1.7195e-12  9.8185e-12
 -6.1331e-12 -1.0308e-11 -3.8626e-12
  4.2753e-12  1.1356e-11  2.4150e-12

(23,2,.,.) = 
 -1.6465e-12 -4.2368e-12 -1.1100e-12
 -1.7310e-12 -1.3073e-12 -1.2259e-12
 -3.2019e-12 -9.4359e-13 -2.7725e-12

(24,2,.,.) = 
  2.2576e-02  5.7803e-02  4.6555e-02
 -2.4880e-01 -7.1758e-01 -6.5418e-01
  2.0339e-01  6.2813e-01  6.4100e-01

(25,2,.,.) = 
 -2.0626e-12  2.2512e-12  1.0958e-12
  1.5453e-12  1.2438e-12 -6.4296e-13
 -1.5395e-12 -4.2528e-15 -2.2888e-13

(26,2,.,.) = 
  6.6120e-02  4.8452e-01  8.3299e-02
  5.8451e-02  3.9054e-01  1.4285e-03
 -2.1069e-01 -7.5299e-01 -1.5567e-01

(27,2,.,.) = 
 -2.1631e-13  8.6551e-13  1.4927e-12
  1.9958e-12 -2.4708e-12 -6.5677e-13
 -8.2651e-13 -3.5546e-13  1.4840e-12

(28,2,.,.) = 
 -1.8284e-01 -3.8441e-01 -3.7379e-01
 -4.4993e-01 -6.7454e-01 -6.4315e-01
 -3.7884e-01 -6.0972e-01 -5.6395e-01

(29,2,.,.) = 
  2.1812e-13  4.2389e-12 -8.6979e-13
  1.3095e-12  5.2971e-12  9.4233e-13
  3.6080e-12  2.9197e-12  2.7999e-12

(30,2,.,.) = 
  4.7182e-02 -8.1931e-02  4.3099e-02
  4.3212e-01 -6.1457e-01  9.1344e-02
  5.7128e-01 -5.7218e-01  1.6607e-03

(31,2,.,.) = 
 -1.1002e-01  2.5244e-02  2.0562e-01
 -9.1961e-02  1.9335e-01  4.2663e-01
 -1.7258e-01  4.9025e-02  2.0957e-01

(32,2,.,.) = 
 -1.2561e-02  8.1091e-02  1.4326e-01
  4.6969e-02 -5.6475e-02 -1.4408e-01
  6.5215e-02 -1.7106e-01 -3.7471e-01

(1,3,.,.) = 
  2.2557e-12  3.4205e-12  4.8088e-12
  4.8432e-12  1.1483e-12  3.3143e-12
  1.8442e-12 -4.4494e-13  3.8697e-13

(2,3,.,.) = 
 -7.4878e-02 -1.5183e-01 -1.3569e-01
 -2.5425e-01 -4.3485e-01 -3.9514e-01
 -2.0829e-01 -3.8110e-01 -3.6277e-01

(3,3,.,.) = 
 -4.5763e-02  3.8173e-02 -1.2968e-02
  3.8715e-03  1.7794e-01 -1.9258e-01
  5.3136e-02  1.8061e-01 -1.7725e-01

(4,3,.,.) = 
 -5.3097e-02  4.3465e-02 -3.8112e-03
 -1.1543e-02  1.9682e-01 -2.5340e-01
  4.3460e-02  2.2345e-01 -2.3671e-01

(5,3,.,.) = 
 -9.4158e-03  2.7701e-02 -5.2269e-03
 -3.6760e-02 -8.3811e-02 -4.1053e-02
 -1.6693e-02 -8.6652e-02 -8.2248e-02

(6,3,.,.) = 
  1.5273e-02 -3.5233e-03 -1.0641e-02
  2.7773e-02  1.0430e-01  1.5547e-02
  6.9554e-02  1.3962e-01  6.6056e-02

(7,3,.,.) = 
 -3.6641e-02 -7.4343e-02 -6.8783e-02
 -2.9042e-02 -1.5399e-01 -1.5450e-01
  8.6067e-03 -9.1386e-02 -8.7739e-02

(8,3,.,.) = 
  2.5044e-02 -8.7090e-02 -8.6947e-02
  6.1076e-02  4.5359e-01  3.1991e-01
  1.6789e-02  4.9805e-01  3.6630e-01

(9,3,.,.) = 
  1.0491e-10  8.9381e-11  1.2391e-10
  1.4509e-10  1.3243e-10  1.6411e-10
  1.1058e-10  1.0547e-10  1.7966e-10

(10,3,.,.) = 
  1.2154e-11  1.2371e-11  1.1271e-11
  1.0118e-11  1.1914e-11  9.4599e-12
  1.1867e-11  1.1771e-11  1.2338e-11

(11,3,.,.) = 
  2.0925e-02 -5.4130e-03  2.8135e-02
 -1.2963e-01 -9.7823e-02  2.9064e-02
  1.4468e-01 -8.1336e-04  6.5418e-03

(12,3,.,.) = 
 -8.3173e-02  4.2134e-02  3.4514e-02
 -1.3758e-01  2.5527e-02  1.1374e-01
 -8.3224e-02  3.9922e-02  7.3735e-02

(13,3,.,.) = 
 -1.2715e-01  1.7626e-01  1.6198e-01
  6.3284e-02 -4.1625e-01 -3.0682e-01
  1.4505e-01 -5.7572e-01 -5.0671e-01

(14,3,.,.) = 
  4.4129e-12  1.0094e-11  9.7701e-12
  3.1394e-12  8.5773e-12  9.4317e-12
  3.1862e-12  8.5929e-12  1.0603e-11

(15,3,.,.) = 
  9.9782e-11 -2.2501e-10  9.4642e-11
  7.8101e-11  5.4342e-13  9.8188e-11
  6.3818e-11  1.9721e-10  3.7607e-11

(16,3,.,.) = 
 -8.2885e-02  2.3560e-01 -1.3809e-01
 -9.3868e-02  1.7905e-01 -7.9770e-02
 -2.6421e-02  4.1594e-02 -3.1996e-02

(17,3,.,.) = 
  6.5604e-12  6.1866e-12  4.5289e-12
  9.3637e-12  9.8013e-12  9.4789e-12
  1.0558e-11  1.1771e-11  1.0975e-11

(18,3,.,.) = 
 -6.2311e-02 -1.2608e-01 -1.0238e-01
 -1.9339e-01 -3.0287e-01 -3.1513e-01
 -9.9403e-02 -2.8667e-01 -2.5875e-01

(19,3,.,.) = 
  1.1214e-01  3.0555e-02  1.8713e-04
  9.9973e-02 -1.8507e-01 -1.0492e-02
  2.8810e-02 -4.0571e-02 -2.3875e-02

(20,3,.,.) = 
 -7.5298e-03  3.8238e-02 -1.2588e-01
  1.6375e-02 -2.3162e-03  7.2639e-03
  2.1019e-02  3.7709e-02  5.2218e-02

(21,3,.,.) = 
 -3.8163e-02 -1.5431e-01 -1.7117e-01
  1.1444e-02  1.7756e-01  1.9407e-01
  2.6783e-03 -1.0993e-02 -1.0600e-02

(22,3,.,.) = 
  7.9595e-12  3.8756e-12  1.0436e-11
 -6.9573e-12 -6.8473e-12 -1.0814e-12
  6.8018e-13  5.6365e-12 -3.0105e-12

(23,3,.,.) = 
  7.5048e-13  1.6865e-12  3.3843e-13
 -2.2411e-13  1.7091e-13  8.5408e-13
  1.1876e-12 -1.3064e-12 -3.0027e-13

(24,3,.,.) = 
  1.8521e-03  2.8919e-02 -1.1236e-02
 -7.0613e-02 -1.6699e-01 -1.4745e-01
  5.1808e-02  1.4850e-01  1.5406e-01

(25,3,.,.) = 
 -1.9182e-12 -2.9961e-12 -1.1747e-12
  6.2700e-13 -1.6346e-12 -3.4161e-12
 -5.3334e-13 -1.7937e-12 -2.4387e-12

(26,3,.,.) = 
 -2.0640e-02  1.2105e-01  2.6629e-02
  2.5740e-02  1.2030e-01 -1.2996e-02
 -2.4804e-02 -2.3418e-01 -4.3455e-02

(27,3,.,.) = 
  2.1240e-12  6.8364e-13  4.9784e-13
  6.1066e-13 -5.3233e-13  1.3047e-12
 -6.2644e-13 -3.3329e-12 -1.4432e-12

(28,3,.,.) = 
  1.2865e-01  3.1073e-01  2.8374e-01
  2.7810e-01  5.0251e-01  4.3517e-01
  2.6724e-01  4.1367e-01  3.4834e-01

(29,3,.,.) = 
  1.9901e-12  4.7240e-12  2.2992e-12
  2.2401e-12  4.1205e-12  3.8224e-12
  2.1811e-12  2.3531e-12  1.6742e-12

(30,3,.,.) = 
 -4.8130e-04  1.8057e-02 -8.3291e-03
  1.0873e-01 -1.5185e-01  5.5381e-02
  1.1514e-01 -1.1592e-01  2.9589e-03

(31,3,.,.) = 
 -8.6146e-02 -2.7376e-02  7.6068e-02
 -2.6236e-02  1.1739e-01  2.6917e-01
 -7.6008e-02  1.9246e-02  1.0272e-01

(32,3,.,.) = 
 -7.0850e-02  1.5621e-02  9.1857e-02
  2.8845e-02  1.9322e-02 -1.1585e-02
  2.5156e-02 -7.7769e-02 -1.8730e-01
[torch.CudaTensor of size 32x3x3x3]
